digraph Tree {
node [shape=box, style="filled, rounded", color="black", fontname="helvetica"] ;
edge [fontname="helvetica"] ;
0 [label="worst perimeter <= 106.05\ngini = 0.465\nsamples = 426\nvalue = [[269, 157]\n[157, 269]]", fillcolor="#fefbf9"] ;
1 [label="worst concave points <= 0.159\ngini = 0.067\nsamples = 259\nvalue = [[250, 9]\n[9, 250]]", fillcolor="#e99355"] ;
0 -> 1 [labeldistance=2.5, labelangle=45, headlabel="True"] ;
2 [label="worst concave points <= 0.135\ngini = 0.031\nsamples = 253\nvalue = [[249, 4]\n[4, 249]]", fillcolor="#e78946"] ;
1 -> 2 ;
3 [label="gini = 0.008\nsamples = 242\nvalue = [[241, 1]\n[1, 241]]", fillcolor="#e5833c"] ;
2 -> 3 ;
4 [label="gini = 0.397\nsamples = 11\nvalue = [[8, 3]\n[3, 8]]", fillcolor="#fae9dd"] ;
2 -> 4 ;
5 [label="worst texture <= 24.785\ngini = 0.278\nsamples = 6\nvalue = [[1, 5]\n[5, 1]]", fillcolor="#f4caac"] ;
1 -> 5 ;
6 [label="gini = 0.0\nsamples = 1\nvalue = [[1, 0]\n[0, 1]]", fillcolor="#e58139"] ;
5 -> 6 ;
7 [label="gini = 0.0\nsamples = 5\nvalue = [[0, 5]\n[5, 0]]", fillcolor="#e58139"] ;
5 -> 7 ;
8 [label="worst texture <= 20.645\ngini = 0.202\nsamples = 167\nvalue = [[19, 148]\n[148, 19]]", fillcolor="#f0b68c"] ;
0 -> 8 [labeldistance=2.5, labelangle=-45, headlabel="False"] ;
9 [label="worst radius <= 17.74\ngini = 0.375\nsamples = 16\nvalue = [[12, 4]\n[4, 12]]", fillcolor="#f9e3d4"] ;
8 -> 9 ;
10 [label="gini = 0.0\nsamples = 11\nvalue = [[11, 0]\n[0, 11]]", fillcolor="#e58139"] ;
9 -> 10 ;
11 [label="gini = 0.32\nsamples = 5\nvalue = [[1, 4]\n[4, 1]]", fillcolor="#f6d5bd"] ;
9 -> 11 ;
12 [label="mean concave points <= 0.049\ngini = 0.088\nsamples = 151\nvalue = [[7, 144]\n[144, 7]]", fillcolor="#ea985d"] ;
8 -> 12 ;
13 [label="gini = 0.48\nsamples = 15\nvalue = [[6, 9]\n[9, 6]]", fillcolor="#ffffff"] ;
12 -> 13 ;
14 [label="gini = 0.015\nsamples = 136\nvalue = [[1, 135]\n[135, 1]]", fillcolor="#e6853f"] ;
12 -> 14 ;
}